{"learner":{"attributes":{"best_iteration":"17","best_score":"0.7393113683949628","scikit_learn":"{\"_estimator_type\": \"regressor\"}"},"feature_names":["first_deriv_682.0","lat_norm","first_deriv_555.0","first_deriv_563.0","first_deriv_542.0","first_deriv_560.0","first_deriv_565.0","Rrs_686.0","first_deriv_558.0","first_deriv_532.0","first_deriv_692.0","Rrs_684.0","Rrs_682.0","first_deriv_699.0","first_deriv_694.0","Rrs_692.0","first_deriv_545.0","first_deriv_691.0","first_deriv_693.0","Rrs_683.0","dist_from_center","Rrs_681.0","first_deriv_568.0","first_deriv_707.0","second_deriv_653.0","first_deriv_702.0","first_deriv_701.0","second_deriv_671.0","Rrs_717.0","Rrs_691.0","second_deriv_487.0","second_deriv_565.0","second_deriv_515.0","first_deriv_703.0","first_deriv_696.0","first_deriv_698.0","second_deriv_505.0","Rrs_702.0","Rrs_689.0","second_deriv_540.0","second_deriv_660.0","Rrs_701.0","Rrs_679.0","first_deriv_708.0","second_deriv_490.0","first_deriv_550.0","second_deriv_356.0","first_deriv_697.0","second_deriv_361.0","second_deriv_403.0","first_deriv_540.0","first_deriv_704.0","lon_norm","Rrs_688.0","first_deriv_673.0","Rrs_693.0","first_deriv_553.0","first_deriv_683.0","Rrs_694.0","Rrs_696.0","Rrs_703.0","first_deriv_706.0","Rrs_678.0","first_deriv_670.0","FLH","first_deriv_547.0","first_deriv_676.0","first_deriv_530.0","second_deriv_665.0","Rrs_699.0","second_deriv_502.0","first_deriv_510.0","Rrs_704.0","Rrs_698.0","Rrs_676.0","first_deriv_512.0","Rrs_697.0","Rrs_719.0","Rrs_677.0","Rrs_673.0","Rrs_675.0","first_deriv_675.0","Rrs_687.0","first_deriv_657.0","first_deriv_507.0","first_deriv_672.0","second_deriv_666.0","first_deriv_668.0","first_deriv_655.0","blue_green_ratio","ratio_490_555","first_deriv_713.0","second_deriv_462.0","Rrs_706.0","second_deriv_676.0","auc_nir","first_deriv_681.0","second_deriv_542.0","first_deriv_535.0","Rrs_671.0"],"feature_types":["float","float","float","float","float","float","float","float","float","float","float","float","float","float","float","float","float","float","float","float","float","float","float","float","float","float","float","float","float","float","float","float","float","float","float","float","float","float","float","float","float","float","float","float","float","float","float","float","float","float","float","float","float","float","float","float","float","float","float","float","float","float","float","float","float","float","float","float","float","float","float","float","float","float","float","float","float","float","float","float","float","float","float","float","float","float","float","float","float","float","float","float","float","float","float","float","float","float","float","float"],"gradient_booster":{"model":{"cats":{"enc":[],"feature_segments":[],"sorted_idx":[]},"gbtree_model_param":{"num_parallel_tree":"1","num_trees":"18"},"iteration_indptr":[0,1,2,3,4,5,6,7,8,9,10,11,12,13,14,15,16,17,18],"tree_info":[0,0,0,0,0,0,0,0,0,0,0,0,0,0,0,0,0,0],"trees":[{"base_weights":[8.796291E-3,-3.998762E-1,2.17122E-1,-1.8968518E-1,-9.647173E-1,1.21028215E-1,1.0534104E0,-8.955835E-2,-1.7405619E-1,-2.5636137E-1,-7.0952946E-1,7.502768E-1,2.8893717E-2,1.3737645E0,-0E0,1.543512E-1,-2.6592074E-2,-1.3169962E-1,-1.624092E-2,2.0184273E-1,2.3045119E-2,2.0014195E-2,-7.706412E-2,2.8547934E-1,1.4751706E-1],"categories":[],"categories_nodes":[],"categories_segments":[],"categories_sizes":[],"default_left":[0,0,0,0,0,0,0,0,0,0,0,0,0,0,0,0,0,0,0,0,0,0,0,0,0],"id":0,"left_children":[1,3,5,7,9,11,13,15,-1,-1,17,19,21,23,-1,-1,-1,-1,-1,-1,-1,-1,-1,-1,-1],"loss_changes":[1.1383563E1,5.170693E0,6.9775763E0,2.9481525E0,1.8071661E0,4.5230665E0,3.233879E0,2.6511695E0,0E0,0E0,6.7554903E-1,3.1919217E0,3.7410574E0,9.69491E-1,0E0,0E0,0E0,0E0,0E0,0E0,0E0,0E0,0E0,0E0,0E0],"parents":[2147483647,0,0,1,1,2,2,3,3,4,4,5,5,6,6,7,7,10,10,11,11,12,12,13,13],"right_children":[2,4,6,8,10,12,14,16,-1,-1,18,20,22,24,-1,-1,-1,-1,-1,-1,-1,-1,-1,-1,-1],"split_conditions":[1.55251E-4,1.734E-4,-9.975E-8,-2.7333E-5,-5.37775E-5,1.85779E-4,8.4375E-5,-2.23999E-4,-1.7405619E-1,-2.5636137E-1,-2.4625E-5,2.25E-6,-2.4375E-6,-3.4E-5,-0E0,1.543512E-1,-2.6592074E-2,-1.3169962E-1,-1.624092E-2,2.0184273E-1,2.3045119E-2,2.0014195E-2,-7.706412E-2,2.8547934E-1,1.4751706E-1],"split_indices":[15,46,39,30,4,29,49,37,0,0,2,85,39,10,0,0,0,0,0,0,0,0,0,0,0],"split_type":[0,0,0,0,0,0,0,0,0,0,0,0,0,0,0,0,0,0,0,0,0,0,0,0,0],"sum_hessian":[1.34E2,4.5E1,8.9E1,3.3E1,1.2E1,8E1,9E0,3E1,3E0,3E0,9E0,1E1,7E1,7E0,2E0,2E0,2.8E1,7E0,2E0,5E0,5E0,5.9E1,1.1E1,3E0,4E0],"tree_param":{"num_deleted":"0","num_feature":"100","num_nodes":"25","size_leaf_vector":"1"}},{"base_weights":[3.9930746E-2,-5.315329E-1,2.3196097E-1,1.2527098E-1,-6.717552E-1,1.576251E-1,1.0573754E0,6.357705E-2,-7.905541E-1,6.17371E-1,4.991381E-2,6.1696434E-1,1.4573615E0,3.0144798E-2,-0E0,-9.661575E-2,-1.9822176E-1,6.098641E-2,1.9725621E-1,-6.429746E-3,1.1164122E-1,5.3077474E-2,1.23931594E-1,2.6895747E-1,1.6451198E-1],"categories":[],"categories_nodes":[],"categories_segments":[],"categories_sizes":[],"default_left":[0,0,0,0,0,0,0,0,0,0,0,0,0,0,0,0,0,0,0,0,0,0,0,0,0],"id":1,"left_children":[1,3,5,-1,7,9,11,13,15,17,19,21,23,-1,-1,-1,-1,-1,-1,-1,-1,-1,-1,-1,-1],"loss_changes":[1.4444163E1,6.2342043E0,5.8929954E0,0E0,2.7302542E0,4.4076757E0,1.0922832E0,6.1841592E-2,1.7952652E0,2.2437944E0,4.7237415E0,3.3807874E-2,1.5400887E-2,0E0,0E0,0E0,0E0,0E0,0E0,0E0,0E0,0E0,0E0,0E0,0E0],"parents":[2147483647,0,0,1,1,2,2,4,4,5,5,6,6,7,7,8,8,9,9,10,10,11,11,12,12],"right_children":[2,4,6,-1,8,10,12,14,16,18,20,22,24,-1,-1,-1,-1,-1,-1,-1,-1,-1,-1,-1,-1],"split_conditions":[1.35112E-4,-1.4250167E-5,2.13745E-5,1.2527098E-1,6.67E-7,-1.3175E-4,-1.35E-5,-6.3889E-5,8.333163E-6,5.3755E-6,4.97501E-4,1.62E-5,4.2875E-5,3.0144798E-2,-0E0,-9.661575E-2,-1.9822176E-1,6.098641E-2,1.9725621E-1,-6.429746E-3,1.1164122E-1,5.3077474E-2,1.23931594E-1,2.6895747E-1,1.6451198E-1],"split_indices":[15,83,3,0,13,84,23,6,87,54,99,6,2,0,0,0,0,0,0,0,0,0,0,0,0],"split_type":[0,0,0,0,0,0,0,0,0,0,0,0,0,0,0,0,0,0,0,0,0,0,0,0,0],"sum_hessian":[1.32E2,3.3E1,9.9E1,3E0,3E1,9.1E1,8E0,4E0,2.6E1,1.7E1,7.4E1,4E0,4E0,2E0,2E0,2E1,6E0,1.3E1,4E0,6.5E1,9E0,2E0,2E0,2E0,2E0],"tree_param":{"num_deleted":"0","num_feature":"100","num_nodes":"25","size_leaf_vector":"1"}},{"base_weights":[-3.229157E-2,-2.0548694E-1,4.6562833E-1,-4.9517617E-1,1.3716239E-1,-1.8503341E-1,5.8670545E-1,-8.290422E-1,-1.9386409E-1,-5.992768E-2,5.2753496E-1,3.0055594E-1,1.1144704E0,-0E0,-1.4499022E-1,-1.37432525E-2,-2.0827843E-1,4.671646E-3,-1.2700117E-1,1.0470128E-1,-5.1366914E-2,1.0008009E-1,1.2507552E-2,2.1853161E-1,1.3448142E-1],"categories":[],"categories_nodes":[],"categories_segments":[],"categories_sizes":[],"default_left":[0,0,0,0,0,0,0,0,0,0,0,0,0,0,0,0,0,0,0,0,0,0,0,0,0],"id":2,"left_children":[1,3,5,7,9,-1,11,13,15,17,19,21,23,-1,-1,-1,-1,-1,-1,-1,-1,-1,-1,-1,-1],"loss_changes":[1.03986E1,8.988836E0,6.204262E0,4.776926E0,3.2252135E0,0E0,4.16745E0,2.1346579E0,2.9424565E0,1.9991769E0,1.9461582E0,1.3599654E0,3.8138008E-1,0E0,0E0,0E0,0E0,0E0,0E0,0E0,0E0,0E0,0E0,0E0,0E0],"parents":[2147483647,0,0,1,1,2,2,3,3,4,4,6,6,7,7,8,8,9,9,10,10,11,11,12,12],"right_children":[2,4,6,8,10,-1,12,14,16,18,20,22,24,-1,-1,-1,-1,-1,-1,-1,-1,-1,-1,-1,-1],"split_conditions":[6.1245E-6,1.0103294E0,-1.39445E-5,-3.3111E-5,-5.3111E-5,-1.8503341E-1,-2.505E-7,-9.7125E-5,-2.35555E-5,2.5555E-6,-5.2E-5,1.99995E-5,-1.8625E-5,-0E0,-1.4499022E-1,-1.37432525E-2,-2.0827843E-1,4.671646E-3,-1.2700117E-1,1.0470128E-1,-5.1366914E-2,1.0008009E-1,1.2507552E-2,2.1853161E-1,1.3448142E-1],"split_indices":[67,52,97,4,56,0,39,65,6,27,22,66,71,0,0,0,0,0,0,0,0,0,0,0,0],"split_type":[0,0,0,0,0,0,0,0,0,0,0,0,0,0,0,0,0,0,0,0,0,0,0,0,0],"sum_hessian":[1.21E2,9E1,3.1E1,4.9E1,4.1E1,2E0,2.9E1,2.3E1,2.6E1,2.7E1,1.4E1,1.9E1,1E1,3E0,2E1,2.4E1,2E0,2.4E1,3E0,1.2E1,2E0,7E0,1.2E1,4E0,6E0],"tree_param":{"num_deleted":"0","num_feature":"100","num_nodes":"25","size_leaf_vector":"1"}},{"base_weights":[-1.8748714E-2,-8.2508974E-2,1.1337485E0,-1.8329058E-3,-5.8850706E-1,6.6883093E-1,3.0302706E-1,1.0896302E-1,-3.8108212E-1,-3.601526E-1,-1.8007575E-1,1.3246171E-1,6.037528E-2,-3.681329E-2,3.6917824E-2,-7.889183E-2,1.35083E-1,-7.7274755E-2,-0E0],"categories":[],"categories_nodes":[],"categories_segments":[],"categories_sizes":[],"default_left":[0,0,0,0,0,0,0,0,0,0,0,0,0,0,0,0,0,0,0],"id":3,"left_children":[1,3,5,7,9,11,-1,13,15,17,-1,-1,-1,-1,-1,-1,-1,-1,-1],"loss_changes":[8.444021E0,4.4442873E0,1.9542322E0,4.075283E0,1.781815E0,2.516985E-2,0E0,3.4196858E0,3.6856506E0,6.132139E-1,0E0,0E0,0E0,0E0,0E0,0E0,0E0,0E0,0E0],"parents":[2147483647,0,0,1,1,2,2,3,3,4,4,5,5,7,7,8,8,9,9],"right_children":[2,4,6,8,10,12,-1,14,16,18,-1,-1,-1,-1,-1,-1,-1,-1,-1],"split_conditions":[7.3125E-6,1.702495E-4,-1.5835592E-6,1.0603827E0,-3.667E-6,7.505E-7,3.0302706E-1,-4.3335E-6,9.33425E-6,7.4889096E-5,-1.8007575E-1,1.3246171E-1,6.037528E-2,-3.681329E-2,3.6917824E-2,-7.889183E-2,1.35083E-1,-7.7274755E-2,-0E0],"split_indices":[44,46,24,1,0,0,0,0,39,28,0,0,0,0,0,0,0,0,0],"split_type":[0,0,0,0,0,0,0,0,0,0,0,0,0,0,0,0,0,0,0],"sum_hessian":[1.17E2,1.11E2,6E0,9.6E1,1.5E1,4E0,2E0,7.4E1,2.2E1,1.1E1,4E0,2E0,2E0,2E1,5.4E1,2E1,2E0,8E0,3E0],"tree_param":{"num_deleted":"0","num_feature":"100","num_nodes":"19","size_leaf_vector":"1"}},{"base_weights":[-5.9549004E-2,-3.3937982E-1,1.358924E-1,-9.4392896E-2,-6.735409E-1,5.7084703E-1,2.1158248E-2,4.2276782E-1,-2.730891E-1,-8.0490065E-1,-3.5120493E-1,1.4208046E-1,9.801749E-1,5.32927E-1,-1.6898504E-1,3.3825826E-2,1.4530309E-1,-9.367598E-3,-1.1718602E-1,-7.805721E-2,-1.4791411E-1,-1.5373585E-2,-7.676062E-2,4.6677124E-2,-4.1575044E-2,2.3154919E-1,1.1866382E-1,-7.982828E-3,1.4647512E-1,-4.4599757E-2,7.246542E-2],"categories":[],"categories_nodes":[],"categories_segments":[],"categories_sizes":[],"default_left":[0,0,0,0,0,0,0,0,0,0,0,0,0,0,0,0,0,0,0,0,0,0,0,0,0,0,0,0,0,0,0],"id":4,"left_children":[1,3,5,7,9,11,13,15,17,19,21,23,25,27,29,-1,-1,-1,-1,-1,-1,-1,-1,-1,-1,-1,-1,-1,-1,-1,-1],"loss_changes":[7.3053327E0,4.3890324E0,3.8053048E0,2.937854E0,7.993603E-1,2.6422858E0,6.089602E0,6.7507267E-1,2.382351E0,5.3673935E-1,1.7433995E-1,5.4575545E-1,5.201068E-1,4.353958E0,3.5124326E0,0E0,0E0,0E0,0E0,0E0,0E0,0E0,0E0,0E0,0E0,0E0,0E0,0E0,0E0,0E0,0E0],"parents":[2147483647,0,0,1,1,2,2,3,3,4,4,5,5,6,6,7,7,8,8,9,9,10,10,11,11,12,12,13,13,14,14],"right_children":[2,4,6,8,10,12,14,16,18,20,22,24,26,28,30,-1,-1,-1,-1,-1,-1,-1,-1,-1,-1,-1,-1,-1,-1,-1,-1],"split_conditions":[-5.625E-5,2.055E-6,-7.06665E-5,7.5625E-5,-4.606225E-5,8.333163E-6,-3.22855E-5,-6.0555E-6,-3.5715E-6,2.8E-6,6.67E-7,2.14275E-6,-4.3333E-5,-3.79995E-5,5.250098E-6,3.3825826E-2,1.4530309E-1,-9.367598E-3,-1.1718602E-1,-7.805721E-2,-1.4791411E-1,-1.5373585E-2,-7.676062E-2,4.6677124E-2,-4.1575044E-2,2.3154919E-1,1.1866382E-1,-7.982828E-3,1.4647512E-1,-4.4599757E-2,7.246542E-2],"split_indices":[16,86,84,49,36,87,10,31,0,63,13,24,3,17,35,0,0,0,0,0,0,0,0,0,0,0,0,0,0,0,0],"split_type":[0,0,0,0,0,0,0,0,0,0,0,0,0,0,0,0,0,0,0,0,0,0,0,0,0,0,0,0,0,0,0],"sum_hessian":[1.33E2,5.5E1,7.8E1,3.2E1,2.3E1,1.6E1,6.2E1,8E0,2.4E1,1.6E1,7E0,8E0,8E0,1.7E1,4.5E1,6E0,2E0,1.7E1,7E0,6E0,1E1,3E0,4E0,6E0,2E0,2E0,6E0,7E0,1E1,3.8E1,7E0],"tree_param":{"num_deleted":"0","num_feature":"100","num_nodes":"31","size_leaf_vector":"1"}},{"base_weights":[-4.359844E-3,-5.6805767E-2,1.0002798E0,-2.0485246E-1,2.0754138E-1,2.736765E-1,5.650281E-1,-4.2663303E-1,3.7522387E-2,3.783695E-1,-4.9940982E-1,3.2617778E-2,1.2854214E-1,7.3183954E-2,-7.717714E-2,5.979047E-2,-1.4190678E-2,3.599912E-2,1.2617093E-1,-3.0839571E-3,-1.15825996E-1],"categories":[],"categories_nodes":[],"categories_segments":[],"categories_sizes":[],"default_left":[0,0,0,0,0,0,0,0,0,0,0,0,0,0,0,0,0,0,0,0,0],"id":5,"left_children":[1,3,5,7,9,-1,11,13,15,17,19,-1,-1,-1,-1,-1,-1,-1,-1,-1,-1],"loss_changes":[6.395121E0,4.618702E0,1.6988654E0,4.143892E0,5.058403E0,0E0,2.295562E-1,2.812573E0,1.7002296E0,2.0120778E0,8.72421E-1,0E0,0E0,0E0,0E0,0E0,0E0,0E0,0E0,0E0,0E0],"parents":[2147483647,0,0,1,1,2,2,3,3,4,4,6,6,7,7,8,8,9,9,10,10],"right_children":[2,4,6,8,10,-1,12,14,16,18,20,-1,-1,-1,-1,-1,-1,-1,-1,-1,-1],"split_conditions":[5.4165E-6,-6.675E-7,-5.889E-6,1.0103294E0,-2.337475E-5,2.736765E-1,6.67E-7,-2.2714E-5,-3.2215E-6,3.83325E-6,1.5606599E0,3.2617778E-2,1.2854214E-1,7.3183954E-2,-7.717714E-2,5.979047E-2,-1.4190678E-2,3.599912E-2,1.2617093E-1,-3.0839571E-3,-1.15825996E-1],"split_indices":[44,0,0,52,30,0,39,83,96,27,20,0,0,0,0,0,0,0,0,0,0],"split_type":[0,0,0,0,0,0,0,0,0,0,0,0,0,0,0,0,0,0,0,0,0],"sum_hessian":[1.24E2,1.18E2,6E0,7.6E1,4.2E1,2E0,4E0,4E1,3.6E1,3.4E1,8E0,2E0,2E0,3E0,3.7E1,1E1,2.6E1,2.6E1,8E0,3E0,5E0],"tree_param":{"num_deleted":"0","num_feature":"100","num_nodes":"21","size_leaf_vector":"1"}},{"base_weights":[4.041219E-2,6.686224E-1,-1.7952017E-2,2.7619815E-1,1.3152527E0,2.3784246E-2,-5.2989286E-1,-2.4318367E-2,9.7800925E-2,1.4159113E-1,2.4851163E-1,-1.2207408E-1,4.8996035E-2,-6.579985E-2,-1.2268653E-1,1.5470688E-2,-8.5174985E-2],"categories":[],"categories_nodes":[],"categories_segments":[],"categories_sizes":[],"default_left":[0,0,0,0,0,0,0,0,0,0,0,0,0,0,0,0,0],"id":6,"left_children":[1,3,5,7,9,11,13,-1,-1,-1,-1,-1,15,-1,-1,-1,-1],"loss_changes":[4.7535167E0,2.5540128E0,2.5539598E0,1.1789829E0,8.50687E-2,2.1051984E0,5.7893038E-2,0E0,0E0,0E0,0E0,0E0,3.2114134E0,0E0,0E0,0E0,0E0],"parents":[2147483647,0,0,1,1,2,2,3,3,4,4,5,5,6,6,12,12],"right_children":[2,4,6,8,10,12,14,-1,-1,-1,-1,-1,16,-1,-1,-1,-1],"split_conditions":[-7.83E-5,-2.43775E-6,1.379445E-4,-3.8755E-6,-9.63E-5,1.489925E-5,1.5962526E-4,-2.4318367E-2,9.7800925E-2,1.4159113E-1,2.4851163E-1,-1.2207408E-1,4.375E-6,-6.579985E-2,-1.2268653E-1,1.5470688E-2,-8.5174985E-2],"split_indices":[99,44,49,0,7,46,49,0,0,0,0,0,27,0,0,0,0],"split_type":[0,0,0,0,0,0,0,0,0,0,0,0,0,0,0,0,0],"sum_hessian":[1.27E2,1.1E1,1.16E2,7E0,4E0,1.07E2,9E0,3E0,4E0,2E0,2E0,3E0,1.04E2,7E0,2E0,9.6E1,8E0],"tree_param":{"num_deleted":"0","num_feature":"100","num_nodes":"17","size_leaf_vector":"1"}},{"base_weights":[-1.3077909E-2,1.21024795E-1,-1.937485E-1,-4.974255E-2,2.9113835E-1,5.1525477E-3,-4.2118514E-1,-1.3747184E-1,4.6354398E-1,-3.7063617E-1,4.788903E-1,-3.1909758E-1,2.1162072E-1,7.4000046E-2,-5.029623E-1,4.2234343E-2,-4.0459737E-2,4.480237E-3,1.0754173E-1,-1.03672266E-1,-3.9676283E-3,2.145371E-2,9.937949E-2,-9.1843924E-4,-1.01688325E-1,1.1997811E-2,1.263599E-1,-1.2951231E-3,-9.099381E-2],"categories":[],"categories_nodes":[],"categories_segments":[],"categories_sizes":[],"default_left":[0,0,0,0,0,0,0,0,0,0,0,0,0,0,0,0,0,0,0,0,0,0,0,0,0,0,0,0,0],"id":7,"left_children":[1,3,5,7,9,11,13,15,17,19,21,23,25,-1,27,-1,-1,-1,-1,-1,-1,-1,-1,-1,-1,-1,-1,-1,-1],"loss_changes":[3.1126466E0,2.1569867E0,2.5503335E0,1.5742186E0,4.617283E0,1.9273349E0,1.9304118E0,1.6249942E0,4.1150403E-1,7.424259E-1,1.5553312E0,1.0907866E0,1.3384566E0,0E0,9.9624395E-1,0E0,0E0,0E0,0E0,0E0,0E0,0E0,0E0,0E0,0E0,0E0,0E0,0E0,0E0],"parents":[2147483647,0,0,1,1,2,2,3,3,4,4,5,5,6,6,7,7,8,8,9,9,10,10,11,11,12,12,14,14],"right_children":[2,4,6,8,10,12,14,16,18,20,22,24,26,-1,28,-1,-1,-1,-1,-1,-1,-1,-1,-1,-1,-1,-1,-1,-1],"split_conditions":[-8.9995E-6,1.66275E-6,-1.339995E-4,-2.866675E-5,1.91875E-5,-4.025E-5,-2.48E-4,2.5006193E-7,-2.75E-6,6.90801E-4,-1.87525E-6,-4.7111E-5,2.778E-6,7.4000046E-2,-5.498302E-1,4.2234343E-2,-4.0459737E-2,4.480237E-3,1.0754173E-1,-1.03672266E-1,-3.9676283E-3,2.145371E-2,9.937949E-2,-9.1843924E-4,-1.01688325E-1,1.1997811E-2,1.263599E-1,-1.2951231E-3,-9.099381E-2],"split_indices":[34,27,71,36,32,8,7,27,0,7,94,8,63,0,1,0,0,0,0,0,0,0,0,0,0,0,0,0,0],"split_type":[0,0,0,0,0,0,0,0,0,0,0,0,0,0,0,0,0,0,0,0,0,0,0,0,0,0,0,0,0],"sum_hessian":[1.28E2,7.3E1,5.5E1,3.6E1,3.7E1,2.9E1,2.6E1,3.1E1,5E0,8E0,2.9E1,1.1E1,1.8E1,2E0,2.4E1,7E0,2.4E1,2E0,3E0,4E0,4E0,1E1,1.9E1,6E0,5E0,1.5E1,3E0,4E0,2E1],"tree_param":{"num_deleted":"0","num_feature":"100","num_nodes":"29","size_leaf_vector":"1"}},{"base_weights":[4.078521E-2,-8.333968E-3,6.000933E-1,-1.6265422E-1,1.15737304E-1,-0E0,7.558026E-1,-5.580009E-2,-5.2752143E-1,1.7186546E-1,-3.733714E-1,7.805136E-2,1.7031057E-1,-2.7805282E-2,2.8229406E-2,-5.8481224E-2,-1.1376549E-1,6.2586754E-3,6.975931E-2,-1.1176631E-2,-1.3717474E-1],"categories":[],"categories_nodes":[],"categories_segments":[],"categories_sizes":[],"default_left":[0,0,0,0,0,0,0,0,0,0,0,0,0,0,0,0,0,0,0,0,0],"id":8,"left_children":[1,3,5,7,9,-1,11,13,15,17,19,-1,-1,-1,-1,-1,-1,-1,-1,-1,-1],"loss_changes":[3.4123206E0,2.1327417E0,9.715884E-1,1.8630699E0,1.6459785E0,0E0,4.5508528E-1,1.179174E0,1.7504E-1,1.9712805E0,7.9958546E-1,0E0,0E0,0E0,0E0,0E0,0E0,0E0,0E0,0E0,0E0],"parents":[2147483647,0,0,1,1,2,2,3,3,4,4,6,6,7,7,8,8,9,9,10,10],"right_children":[2,4,6,8,10,-1,12,14,16,18,20,-1,-1,-1,-1,-1,-1,-1,-1,-1,-1],"split_conditions":[2.36752E-4,-8.86665E-5,-5.0001E-5,-1.030625E-4,-5.00025E-6,-0E0,1.9001E-5,-4.5555E-6,-2.17E-5,1.3199821E-5,-2.827725E-5,7.805136E-2,1.7031057E-1,-2.7805282E-2,2.8229406E-2,-5.8481224E-2,-1.1376549E-1,6.2586754E-3,6.975931E-2,-1.1176631E-2,-1.3717474E-1],"split_indices":[28,48,10,48,97,0,3,57,77,85,30,0,0,0,0,0,0,0,0,0,0],"split_type":[0,0,0,0,0,0,0,0,0,0,0,0,0,0,0,0,0,0,0,0,0],"sum_hessian":[1.21E2,1.11E2,1E1,5E1,6.1E1,2E0,8E0,3.9E1,1.1E1,5.5E1,6E0,5E0,3E0,2.6E1,1.3E1,7E0,4E0,3.8E1,1.7E1,4E0,2E0],"tree_param":{"num_deleted":"0","num_feature":"100","num_nodes":"21","size_leaf_vector":"1"}},{"base_weights":[6.1567877E-3,3.012877E-1,-1.2816243E-1,7.621496E-1,5.6579415E-2,-1.5984933E-1,5.065612E-1,5.8514947E-1,2.0766886E-1,1.6084358E-1,-1.7539153E-2,-2.4078971E-1,9.5788136E-2,1.1069143E-1,3.262641E-2,2.6140168E-2,1.011011E-1,1.7380748E-2,-8.730625E-2,2.0283053E-2,-5.0230376E-2,-3.879235E-2,6.045486E-2],"categories":[],"categories_nodes":[],"categories_segments":[],"categories_sizes":[],"default_left":[0,0,0,0,0,0,0,0,0,0,0,0,0,0,0,0,0,0,0,0,0,0,0],"id":9,"left_children":[1,3,5,7,9,11,13,15,-1,-1,17,19,21,-1,-1,-1,-1,-1,-1,-1,-1,-1,-1],"loss_changes":[5.180122E0,4.5034533E0,1.7399746E0,1.1760035E0,2.1436622E0,1.7808363E0,1.1418712E-1,2.1882081E-1,0E0,0E0,1.8808098E0,2.1487672E0,2.1126156E0,0E0,0E0,0E0,0E0,0E0,0E0,0E0,0E0,0E0,0E0],"parents":[2147483647,0,0,1,1,2,2,3,3,4,4,5,5,6,6,7,7,10,10,11,11,12,12],"right_children":[2,4,6,8,10,12,14,16,-1,-1,18,20,22,-1,-1,-1,-1,-1,-1,-1,-1,-1,-1],"split_conditions":[-8.4445E-6,4.98251E-4,-3.5E-6,-9.666E-6,-3.95005E-5,-3.75625E-5,-6E-6,2.375E-5,2.0766886E-1,1.6084358E-1,-2.716723E-5,5.6E-8,1.1660163E-6,1.1069143E-1,3.262641E-2,2.6140168E-2,1.011011E-1,1.7380748E-2,-8.730625E-2,2.0283053E-2,-5.0230376E-2,-3.879235E-2,6.045486E-2],"split_indices":[43,74,83,97,34,36,0,32,0,0,14,40,40,0,0,0,0,0,0,0,0,0,0],"split_type":[0,0,0,0,0,0,0,0,0,0,0,0,0,0,0,0,0,0,0,0,0,0,0],"sum_hessian":[1.3E2,4.1E1,8.9E1,1.4E1,2.7E1,8.5E1,4E0,1.1E1,3E0,2E0,2.5E1,6.5E1,2E1,2E0,2E0,2E0,9E0,2E1,5E0,1.2E1,5.3E1,9E0,1.1E1],"tree_param":{"num_deleted":"0","num_feature":"100","num_nodes":"23","size_leaf_vector":"1"}},{"base_weights":[7.6866113E-3,-3.203366E-1,1.0760467E-1,-1.9033803E-1,-7.251759E-1,1.1327934E0,5.193684E-2,-0E0,-3.678437E-1,-1.4792605E-1,-5.3838942E-2,2.4733087E-1,5.037892E-2,-1.3305888E-1,1.5279917E-1,5.772491E-2,-2.0967187E-2,-2.5225077E-2,-7.5193554E-2,-6.1094966E-3,-9.547444E-2,7.5148633E-3,5.810028E-2],"categories":[],"categories_nodes":[],"categories_segments":[],"categories_sizes":[],"default_left":[0,0,0,0,0,0,0,0,0,0,0,0,0,0,0,0,0,0,0,0,0,0,0],"id":10,"left_children":[1,3,5,7,9,11,13,15,17,-1,-1,-1,-1,19,21,-1,-1,-1,-1,-1,-1,-1,-1],"loss_changes":[4.2301793E0,1.4420607E0,5.531429E0,7.917682E-1,4.317329E-1,1.6501441E0,1.7760578E0,5.787507E-1,2.0260227E-1,0E0,0E0,0E0,0E0,1.4100304E0,1.3943923E0,0E0,0E0,0E0,0E0,0E0,0E0,0E0,0E0],"parents":[2147483647,0,0,1,1,2,2,3,3,4,4,5,5,6,6,7,7,8,8,13,13,14,14],"right_children":[2,4,6,8,10,12,14,16,18,-1,-1,-1,-1,20,22,-1,-1,-1,-1,-1,-1,-1,-1],"split_conditions":[-5.94445E-5,1.5005935E-6,2.25E-6,-1.29E-5,2.9445E-6,-1.23335E-5,3E-6,-1.63325E-5,-5.4445E-6,-1.4792605E-1,-5.3838942E-2,2.4733087E-1,5.037892E-2,-9.997748E-7,3.25025E-6,5.772491E-2,-2.0967187E-2,-2.5225077E-2,-7.5193554E-2,-6.1094966E-3,-9.547444E-2,7.5148633E-3,5.810028E-2],"split_indices":[6,51,85,44,24,18,68,14,23,0,0,0,0,0,27,0,0,0,0,0,0,0,0],"split_type":[0,0,0,0,0,0,0,0,0,0,0,0,0,0,0,0,0,0,0,0,0,0,0],"sum_hessian":[1.3E2,3E1,1E2,2.3E1,7E0,5E0,9.5E1,1.1E1,1.2E1,4E0,3E0,3E0,2E0,3.3E1,6.2E1,3E0,8E0,5E0,7E0,2.8E1,5E0,4.3E1,1.9E1],"tree_param":{"num_deleted":"0","num_feature":"100","num_nodes":"23","size_leaf_vector":"1"}},{"base_weights":[3.7026297E-2,4.5376533E-1,-3.1742334E-2,2.9803026E-1,1.8041693E-1,-6.804049E-2,4.648205E-1,1.8588038E-1,8.693628E-2,-5.2246255E-1,-2.1399794E-2,-7.088205E-3,8.839671E-1,-0E0,3.4882337E-2,-1.2779479E-1,-1.4340441E-2,-1.2533583E-1,2.0934788E-3,1.7080005E-1,8.768913E-2],"categories":[],"categories_nodes":[],"categories_segments":[],"categories_sizes":[],"default_left":[0,0,0,0,0,0,0,0,0,0,0,0,0,0,0,0,0,0,0,0,0],"id":11,"left_children":[1,3,5,7,-1,9,11,13,-1,15,17,-1,19,-1,-1,-1,-1,-1,-1,-1,-1],"loss_changes":[3.645429E0,1.8096788E0,1.870468E0,3.4126663E-1,0E0,2.039001E0,1.6271617E0,8.743566E-2,0E0,1.0684185E0,2.664685E0,0E0,3.0687332E-2,0E0,0E0,0E0,0E0,0E0,0E0,0E0,0E0],"parents":[2147483647,0,0,1,1,2,2,3,3,5,5,6,6,7,7,9,9,10,10,12,12],"right_children":[2,4,6,8,-1,10,12,14,-1,16,18,-1,20,-1,-1,-1,-1,-1,-1,-1,-1],"split_conditions":[-1.43775E-6,-1.3222E-5,-3.5E-6,2.855E-7,1.8041693E-1,3.655575E-5,-3.95E-5,-5.26665E-5,8.693628E-2,-5.68725E-6,-4.055575E-5,-7.088205E-3,-2.94445E-5,-0E0,3.4882337E-2,-1.2779479E-1,-1.4340441E-2,-1.2533583E-1,2.0934788E-3,1.7080005E-1,8.768913E-2],"split_indices":[24,83,83,3,0,46,2,2,0,44,92,0,5,0,0,0,0,0,0,0,0],"split_type":[0,0,0,0,0,0,0,0,0,0,0,0,0,0,0,0,0,0,0,0,0],"sum_hessian":[1.25E2,1.8E1,1.07E2,1.5E1,3E0,1E2,7E0,1.1E1,4E0,9E0,9.1E1,3E0,4E0,2E0,9E0,5E0,4E0,4E0,8.7E1,2E0,2E0],"tree_param":{"num_deleted":"0","num_feature":"100","num_nodes":"21","size_leaf_vector":"1"}},{"base_weights":[2.9958612E-3,1.4842229E-1,-1.3198252E-2,-6.208373E-2,3.7739474E-1,-3.693121E-2,-1.2462542E-1,6.9760896E-2,8.809564E-2,-2.4994323E-2,9.612113E-3,4.0690273E-2,-1.8907243E-3],"categories":[],"categories_nodes":[],"categories_segments":[],"categories_sizes":[],"default_left":[0,0,0,0,0,0,0,0,0,0,0,0,0],"id":12,"left_children":[1,-1,3,5,7,9,-1,11,-1,-1,-1,-1,-1],"loss_changes":[1.910761E0,0E0,2.0733132E0,1.7462841E0,6.3583386E-1,1.2246135E0,0E0,1.1829638E-1,0E0,0E0,0E0,0E0,0E0],"parents":[2147483647,0,0,2,2,3,3,4,4,5,5,7,7],"right_children":[2,-1,4,6,8,10,-1,12,-1,-1,-1,-1,-1],"split_conditions":[-6.0778E-5,1.4842229E-1,2.74285E-5,9.714E-6,1.5606599E0,-5.05575E-6,-1.2462542E-1,2.88745E-5,8.809564E-2,-2.4994323E-2,9.612113E-3,4.0690273E-2,-1.8907243E-3],"split_indices":[2,0,9,3,20,39,0,2,0,0,0,0,0],"split_type":[0,0,0,0,0,0,0,0,0,0,0,0,0],"sum_hessian":[1.13E2,2E0,1.11E2,9.9E1,1.2E1,9.6E1,3E0,5E0,7E0,4.3E1,5.3E1,2E0,3E0],"tree_param":{"num_deleted":"0","num_feature":"100","num_nodes":"13","size_leaf_vector":"1"}},{"base_weights":[-0E0,1.353319E-1,-1.01415426E-1,3.5270944E-1,1.5424531E-3,-1.4222647E-1,7.8526266E-2,1.00219786E-1,2.0143762E-1,6.159295E-2,-3.4977075E-2,8.075567E-2,-2.6254216E-1,8.463047E-3,7.533373E-2,-2.4198228E-2,6.6219983E-3,-1.1603932E-2,3.837424E-2,-2.1899052E-2,-7.510409E-2],"categories":[],"categories_nodes":[],"categories_segments":[],"categories_sizes":[],"default_left":[0,0,0,0,0,0,0,0,0,0,0,0,0,0,0,0,0,0,0,0,0],"id":13,"left_children":[1,3,5,7,9,11,-1,-1,13,-1,15,17,19,-1,-1,-1,-1,-1,-1,-1,-1],"loss_changes":[1.6338172E0,1.4311109E0,1.6513197E0,7.3983574E-1,5.231935E-1,1.7445836E0,0E0,0E0,4.7134566E-1,0E0,2.964931E-1,6.1172754E-1,1.0500646E0,0E0,0E0,0E0,0E0,0E0,0E0,0E0,0E0],"parents":[2147483647,0,0,1,1,2,2,3,3,4,4,5,5,8,8,10,10,11,11,12,12],"right_children":[2,4,6,8,10,12,-1,-1,14,-1,16,18,20,-1,-1,-1,-1,-1,-1,-1,-1],"split_conditions":[-5.498302E-1,-4.75E-5,2.66675E-5,-9.9995E-6,-8.3755E-6,1.5606599E0,7.8526266E-2,1.00219786E-1,6.499E-6,6.159295E-2,2.8890041E-5,-1.7333E-5,-2.625E-6,8.463047E-3,7.533373E-2,-2.4198228E-2,6.6219983E-3,-1.1603932E-2,3.837424E-2,-2.1899052E-2,-7.510409E-2],"split_indices":[1,36,67,10,13,20,0,0,63,0,77,70,39,0,0,0,0,0,0,0,0],"split_type":[0,0,0,0,0,0,0,0,0,0,0,0,0,0,0,0,0,0,0,0,0],"sum_hessian":[1.19E2,5.1E1,6.8E1,1.9E1,3.2E1,6.4E1,4E0,6E0,1.3E1,3E0,2.9E1,2.2E1,4.2E1,9E0,4E0,1.2E1,1.7E1,1.1E1,1.1E1,2.8E1,1.4E1],"tree_param":{"num_deleted":"0","num_feature":"100","num_nodes":"21","size_leaf_vector":"1"}},{"base_weights":[1.4391204E-2,5.5297762E-2,-6.0618407E-1,4.784944E-1,1.6062232E-2,-1.10621E-1,-3.654297E-2,7.783551E-1,-1.115103E-2,3.9285563E-2,-3.9919034E-1,8.743822E-2,1.7033121E-1,4.129367E-2,-7.6392014E-4,-9.870841E-2,-0E0],"categories":[],"categories_nodes":[],"categories_segments":[],"categories_sizes":[],"default_left":[0,0,0,0,0,0,0,0,0,0,0,0,0,0,0,0,0],"id":14,"left_children":[1,3,5,7,9,-1,-1,11,-1,13,15,-1,-1,-1,-1,-1,-1],"loss_changes":[2.8892689E0,1.7533143E0,1.5528297E-1,1.5954068E0,9.2100513E-1,0E0,0E0,1.5853047E-1,0E0,1.0189099E0,4.5387048E-1,0E0,0E0,0E0,0E0,0E0,0E0],"parents":[2147483647,0,0,1,1,2,2,3,3,4,4,7,7,9,9,10,10],"right_children":[2,4,6,8,10,-1,-1,12,-1,14,16,-1,-1,-1,-1,-1,-1],"split_conditions":[-1.625E-6,2.2275E-7,-2.022225E-5,3.1252857E-6,3.32505E-5,-1.10621E-1,-3.654297E-2,5.835E-7,-1.115103E-2,-1.01665E-5,-3.58E-5,8.743822E-2,1.7033121E-1,4.129367E-2,-7.6392014E-4,-9.870841E-2,-0E0],"split_indices":[18,27,70,26,98,0,0,24,0,51,14,0,0,0,0,0,0],"split_type":[0,0,0,0,0,0,0,0,0,0,0,0,0,0,0,0,0],"sum_hessian":[1.17E2,1.1E2,7E0,9E0,1.01E2,5E0,2E0,6E0,3E0,9.6E1,5E0,4E0,2E0,1.6E1,8E1,3E0,2E0],"tree_param":{"num_deleted":"0","num_feature":"100","num_nodes":"17","size_leaf_vector":"1"}},{"base_weights":[3.0565945E-2,-4.1014086E-2,3.3186346E-1,1.2860253E-1,-1.8510151E-1,5.986826E-1,2.7351817E-3,2.4497876E-1,-2.1751276E-1,-2.304956E-1,8.19077E-2,3.394523E-2,7.4920017E-1,1.2574701E-1,-7.2624035E-2,4.8132244E-2,-1.9583216E-2,-1.0187336E-1,-1.5415287E-2,3.4571886E-3,-5.0554704E-2,9.4716094E-2,1.7226134E-1,3.57897E-2,-0E0],"categories":[],"categories_nodes":[],"categories_segments":[],"categories_sizes":[],"default_left":[0,0,0,0,0,0,0,0,0,0,0,0,0,0,0,0,0,0,0,0,0,0,0,0,0],"id":15,"left_children":[1,3,5,7,9,11,13,15,17,19,-1,-1,21,23,-1,-1,-1,-1,-1,-1,-1,-1,-1,-1,-1],"loss_changes":[2.6962922E0,2.4285362E0,2.0196545E0,1.8178952E0,1.7222065E0,5.9225607E-1,5.9552824E-1,9.0878034E-1,4.618795E-1,1.3333223E0,0E0,0E0,1.7463446E-1,1.3148177E-1,0E0,0E0,0E0,0E0,0E0,0E0,0E0,0E0,0E0,0E0,0E0],"parents":[2147483647,0,0,1,1,2,2,3,3,4,4,5,5,6,6,7,7,8,8,9,9,12,12,13,13],"right_children":[2,4,6,8,10,12,14,16,18,20,-1,-1,22,24,-1,-1,-1,-1,-1,-1,-1,-1,-1,-1,-1],"split_conditions":[2.1994092E-6,-5.498302E-1,-3.411125E-5,-8.00025E-6,2.1125E-5,2.8885E-6,-2.005575E-5,-4.92215E-5,-4.874975E-5,1.2500677E-5,8.19077E-2,3.394523E-2,-1.475E-5,2.04E-5,-7.2624035E-2,4.8132244E-2,-1.9583216E-2,-1.0187336E-1,-1.5415287E-2,3.4571886E-3,-5.0554704E-2,9.4716094E-2,1.7226134E-1,3.57897E-2,-0E0],"split_indices":[0,1,36,92,9,96,36,22,36,72,0,0,83,63,0,0,0,0,0,0,0,0,0,0,0],"split_type":[0,0,0,0,0,0,0,0,0,0,0,0,0,0,0,0,0,0,0,0,0,0,0,0,0],"sum_hessian":[1.23E2,9.9E1,2.4E1,4.5E1,5.4E1,1.3E1,1.1E1,3.4E1,1.1E1,5.1E1,3E0,4E0,9E0,9E0,2E0,2.9E1,5E0,2E0,9E0,1.4E1,3.7E1,7E0,2E0,5E0,4E0],"tree_param":{"num_deleted":"0","num_feature":"100","num_nodes":"25","size_leaf_vector":"1"}},{"base_weights":[2.4210408E-2,-3.8853619E-1,6.648964E-2,-2.671917E-1,-1.3098478E-1,1.3319056E-1,-1.9653207E-1,-5.203031E-2,-0E0,-1.24091424E-1,1.791627E-1,-5.1204866E-4,-6.934534E-1,4.6018782E-4,-9.1098025E-2,9.56714E-3,4.563068E-2,-2.4052901E-2,3.60716E-2,-1.4976045E-1,-7.8283004E-2],"categories":[],"categories_nodes":[],"categories_segments":[],"categories_sizes":[],"default_left":[0,0,0,0,0,0,0,0,0,0,0,0,0,0,0,0,0,0,0,0,0],"id":16,"left_children":[1,3,5,7,-1,9,11,-1,-1,13,15,17,19,-1,-1,-1,-1,-1,-1,-1,-1],"loss_changes":[2.0818295E0,4.547906E-1,1.9385562E0,1.666503E-1,0E0,1.061288E0,2.0414033E0,0E0,0E0,8.6672974E-1,1.0008156E0,5.810398E-1,8.4481955E-2,0E0,0E0,0E0,0E0,0E0,0E0,0E0,0E0],"parents":[2147483647,0,0,1,1,2,2,3,3,5,5,6,6,9,9,10,10,11,11,12,12],"right_children":[2,4,6,8,-1,10,12,-1,-1,14,16,18,20,-1,-1,-1,-1,-1,-1,-1,-1],"split_conditions":[-7E-5,1.175E-5,-1.0666748E-5,-5.5375E-5,-1.3098478E-1,6.675025E-5,6.6666144E-6,-5.203031E-2,-0E0,-8.444E-6,-1.75E-6,-5.91255E-5,-1.985E-4,4.6018782E-4,-9.1098025E-2,9.56714E-3,4.563068E-2,-2.4052901E-2,3.60716E-2,-1.4976045E-1,-7.8283004E-2],"split_indices":[6,54,14,3,0,49,87,0,0,88,57,6,7,0,0,0,0,0,0,0,0],"split_type":[0,0,0,0,0,0,0,0,0,0,0,0,0,0,0,0,0,0,0,0,0],"sum_hessian":[1.22E2,1.1E1,1.11E2,9E0,2E0,8.9E1,2.2E1,7E0,2E0,1.3E1,7.6E1,1.6E1,6E0,1E1,3E0,3.9E1,3.7E1,1E1,6E0,2E0,4E0],"tree_param":{"num_deleted":"0","num_feature":"100","num_nodes":"21","size_leaf_vector":"1"}},{"base_weights":[-4.494347E-2,-7.19526E-2,5.021527E-1,-1.0800131E-1,-5.2165214E-2,-2.5251083E-2,1.5229604E-1,-2.3891507E-1,1.1424382E-2,-2.40685E-2,-8.686961E-2,-6.1112627E-2,7.3910714E-3],"categories":[],"categories_nodes":[],"categories_segments":[],"categories_sizes":[],"default_left":[0,0,0,0,0,0,0,0,0,0,0,0,0],"id":17,"left_children":[1,3,5,-1,7,-1,-1,9,11,-1,-1,-1,-1],"loss_changes":[1.5919086E0,1.2287532E0,1.7728213E0,0E0,1.2689396E0,0E0,0E0,6.164597E-1,1.1137508E0,0E0,0E0,0E0,0E0],"parents":[2147483647,0,0,1,1,2,2,4,4,7,7,8,8],"right_children":[2,4,6,-1,8,-1,-1,10,12,-1,-1,-1,-1],"split_conditions":[-2.50025E-6,-1.55E-5,-1.2375E-5,-1.0800131E-1,-7.5112E-5,-2.5251083E-2,1.5229604E-1,-2.9995E-6,-9.00025E-6,-2.40685E-2,-8.686961E-2,-6.1112627E-2,7.3910714E-3],"split_indices":[97,61,17,0,45,0,0,39,39,0,0,0,0],"split_type":[0,0,0,0,0,0,0,0,0,0,0,0,0],"sum_hessian":[1.12E2,1.07E2,5E0,3E0,1.04E2,2E0,3E0,2.7E1,7.7E1,2.2E1,5E0,6E0,7.1E1],"tree_param":{"num_deleted":"0","num_feature":"100","num_nodes":"13","size_leaf_vector":"1"}}]},"name":"gbtree"},"learner_model_param":{"base_score":"[4.035309E0]","boost_from_average":"1","num_class":"0","num_feature":"100","num_target":"1"},"objective":{"name":"reg:squarederror","reg_loss_param":{"scale_pos_weight":"1"}}},"version":[3,1,3]}